function [Y,Xf,Af] = MatlabNN3(X,~,~)
%MYNEURALNETWORKFUNCTION neural network simulation function.
%
% Generated by Neural Network Toolbox function genFunction, 22-Jul-2015 16:01:24.
% 
% [Y] = myNeuralNetworkFunction(X,~,~) takes these arguments:
% 
%   X = 1xTS cell, 1 inputs over TS timsteps
%   Each X{1,ts} = 9xQ matrix, input #1 at timestep ts.
% 
% and returns:
%   Y = 1xTS cell of 1 outputs over TS timesteps.
%   Each Y{1,ts} = 4xQ matrix, output #1 at timestep ts.
% 
% where Q is number of samples (or series) and TS is the number of timesteps.

%#ok<*RPMT0>

  % ===== NEURAL NETWORK CONSTANTS =====
  
  % Input 1
  x1_step1_xoffset = [0;-0.582497746075963;-0.496044142298002;-0.999998672326938;-0.999999997613455;-0.477585455671001;-0.468765896273813;-0.999998832758875;-0.999999248949718];
  x1_step1_gain = [2;1.76884811855292;1.84887238775667;1.00000082545028;1.00000000248081;2.08244056613219;1.96207978703015;1.00000171182966;1.0000003755529];
  x1_step1_ymin = -1;
  
  % Layer 1
  b1 = [-2.3049431228778245;2.6418219532401621;2.9961692500010257;-2.5549487495243417;2.3291707589221242;1.8927111602706834;-2.619053284051768;-1.9997184141902693;1.8685474847894099;-1.9706793344580749;2.0524602362943161;2.5366594474548689;-2.4047025222653708;2.1365030617158545;2.0336594773045871;-1.69249459657333;-1.9860677607563226;-1.7111849242270369;1.8732962077027742;2.0538275647066677;2.0083268661242135;1.8625746389882265;1.5911857959089482;-2.3677453716900025;-2.0535168794980669;1.9372011994049505;1.7583192523988203;1.7198150228614024;1.0346881172180971;-1.3904292085368464;-1.1789815667319885;-1.0436954192017942;-1.8971135681334239;-0.93313258421803891;1.7763516863244868;-1.054425248992747;1.0263100972474124;1.1211262518860146;0.90179771987410118;-0.97809390758832571;0.76176162451167218;-0.50419635668187202;-0.88656639168459406;1.0279204897377316;-1.3376392140384259;-1.181237965197075;-0.86874444467948719;0.77989237499194752;-0.65910775533880761;-1.0122667858779126;0.87462302275890746;-0.55791792891745073;0.47425433529682393;0.84278345096946883;-0.62763377811836063;0.87921838868317015;0.85194447799946627;-0.76688998682453102;-0.17510607255923849;-0.48595103132114309;0.57775693733002909;1.0214297814031068;0.77178910244199206;-0.51949824560760682;-0.32738064136427575;0.2962893135907646;0.40731267341151106;0.25917011627721825;0.2892729177314543;0.42646163754370647;0.50683375197736558;0.30863033032766424;-0.34910710134446477;0.50773649967448509;-0.3645125872364896;-0.1575827137171637;0.68463798924291897;0.40891133942997909;0.3367744533299723;-0.41759320758756635;0.17154778479545174;-0.25619344555562412;0.40603613652783083;0.63408553022357272;-0.10736587037903308;-0.38163027219634515;-0.37828480448785784;0.78603200362764414;-0.30409158342094667;0.67044262988804926;0.081783953514413185;1.1046631800735864;0.8654044122555129;0.25821797471934227;0.87579673689475657;0.860033613048929;0.2364080618967711;1.3426521143161894;-0.38641183110742516;0.68417973700363133;1.2235570157484585;0.40288158125910783;1.0884222036623987;0.99991562783518118;-0.9581516455167256;0.92977719088620037;-1.3029598156073392;-1.3175412978345231;1.0738915741062556;-1.3612800642116911;-0.62536773524806655;1.3727504474246228;1.7826529811774967;-1.999175601423872;1.3427503732085282;-1.5399511979853517;-1.6346527091463825;-1.5472426495299727;1.1496194016040102;2.0268937467697117;-1.3461629141939553;1.497542312709921;-0.85639714594452698;1.9619022490270808;-1.5051785631800583;-1.2357200094674947;-2.0459428404978146;2.2725934905468237;1.7197319354494267;-1.6063879862074733;1.9911847730299528;2.3990993845234567;-2.2562692790528609;-2.1328020170288537;1.4286513607852962;1.3157003539584378;-1.6975307904523513;2.022827066634119;-2.1982789090751083;-2.4582678534511024;2.2857840337346671;1.8327548503589737;-2.2853346608036169;2.4068205697151446;-2.6204647152992435;-2.2446436682602724;2.4446669295660217;-2.390112280249054;-2.4478587689732167;-2.4741499148389479];
  IW1_1 = [0.45886289218050291 0.28872726023699163 -0.51599106369735048 0.98993100185406058 -0.15617681878548254 -1.559854872815154 0.055360142691747785 -0.82073316239478733 0.34419719654060876;-1.1894597105569726 0.78643720336009237 -0.57791969438200375 -0.7223031742802849 0.1142162785384403 0.52988396081241473 1.2863103312337094 0.33728676005466168 0.7269215904880616;-0.3903270601115037 -0.38335544764246204 0.81434303484813564 -0.97397765204512721 1.1287688924909409 -1.671511145271519 -0.32546331864626277 -1.0651276328087529 -0.94555063027970421;0.75134921208783456 -1.3884283009004659 -0.25181950703719164 -2.1064083390808772 -0.18912698063655362 1.2519080497223187 0.12107346159646001 1.2136500249123976 -1.1491101621060835;-0.9514345684264256 0.54103508078995455 -0.70796851477025913 -1.0860191686622105 -0.15520812368386511 -1.2846482733556175 -0.52590504829150131 -1.0207756920051352 -1.066913098266544;-0.33429838563411551 -0.86475304338727899 0.85026094625418425 -0.78196820078905871 1.0572328954653614 -0.47766805723265565 0.09938108244812402 -1.0998719505709724 0.088439650010931306;-0.16976111279632553 -1.6946354656737439 -0.10478878047833731 0.79921937800525111 -0.609528949625466 0.056004128952196558 0.76539416466938548 -0.63719490721963046 -0.92238682981417497;0.045033603182112476 -0.51099395827894933 1.2262612282466974 -1.4692413164435076 -0.34936445606387911 0.065785000743363131 0.92158432062575746 -0.90489011775255079 0.62345431460159506;-0.62245871939827591 -1.4176743286823088 0.58573046987404942 -0.41025836813873251 0.75575967072366435 -1.029735576750102 0.74587356423269791 0.26485023873458641 -0.93268569721436645;-0.0027166711167374291 1.4956659642859529 -0.1611399602683817 -1.2597829383624752 -1.2147989757640421 1.7509167269066979 -0.25856866189602828 -0.4145636072339367 -0.97527326333230036;0.11262379219551547 1.2557821919954923 0.44504611115549864 -0.98460604942106345 0.51766793422058066 -0.20499929363716057 -0.37518648379286479 1.4045646678598582 -0.4069448271187836;0.090126574497900402 0.20043747308651771 -0.76220880829623572 1.3226955009735226 -0.15107940932729305 1.2018990173194009 0.56106167469455082 1.458135064156467 0.94033964043880758;-0.47473970328330489 -0.40501955860076938 -0.81305755240085142 -1.3245507158130405 -0.89738179475141766 -0.85794603290342542 -1.0008537683573542 -0.80053478672994838 0.33748981434579317;-1.1365157102565095 0.88905406703954848 -0.57361143702093553 -0.59171342562428353 -0.58288802070461476 -1.3571242020988381 0.72695265325241809 0.47697072672562513 -0.10203220716924119;-0.5141109337771177 -0.44900195387219832 -0.29032131760642305 -0.99951700193088377 -0.85874331446983898 -0.85876540732092599 0.76424979185906061 -0.62721479362939769 0.49709786544273227;1.6839623629002427 -1.0479374609002867 -0.32386679983191669 -0.38203049364329977 -0.25600208208387099 -0.46274243574404733 -1.099126030535986 0.86169220629464005 0.26360735719362366;1.8704843093989929 0.18517360478119727 -0.12316398651487998 -0.0058077905600097748 -0.85643732227678016 0.16020036732670898 -0.63888359821882135 0.27124038996977062 0.46238099732852272;1.8476740038459629 -0.12793895336666239 0.95814383680168858 -0.16358719641747652 -0.90424683633364678 -1.1306122205018292 0.52776025864067644 0.35846083350702856 -0.12872507304556796;-0.1417262425809005 -1.1454702432172752 0.17137486586259304 0.39358017735899425 -0.92689838885674547 -1.5711089720619797 -0.73973491671804925 -0.89618450405199779 -0.600683159127959;-1.3312054502545987 -0.77305177448303397 0.52827789008579729 0.51683353914883756 0.3906478079214783 0.053138748492953886 -0.24849137513146091 -1.2649784223587499 1.9735677238905758;-1.0762845161317864 0.86231340075006746 1.5464908805703341 -0.66172000045222701 -0.20013589561937295 -0.49716094793090998 -0.53484968747908701 -1.0259791236939024 0.021906475987269889;-0.81238727402519373 -0.20322177114621734 0.58974877864774899 -0.57659842522903948 0.55735160522518334 0.43123541980498709 1.2430775817728452 0.11693563963725004 0.48929976293016342;-0.75550256350884182 -1.090580858556174 -0.92600203842439344 0.21428207321839476 -0.90947366700601939 0.35168009311665926 -0.50863691440448422 0.098369364294673051 -0.83933300915181608;0.43083411712108971 -0.44873888746505119 -1.5352152163624593 0.72800475656634756 -0.13376619715007804 0.68013676536891998 1.1008916359349799 0.17350975033252697 -1.2647586906175883;0.94470555025316394 -0.51390047944759509 0.51678266345049961 -0.90048315321016958 0.89708569722897902 1.3252007996958832 -0.86129317237352532 -0.47168290660094292 -0.62368325503101352;0.047224741112182028 0.37730992416536568 0.72357160296038014 -1.1776862713403229 0.048331355120743248 0.88665411427109275 0.096967883556049267 -0.15564761939934402 -0.16998390161278523;-0.79354836258817174 -0.39566636686513462 0.76468338357273957 -1.0534914081017441 -0.90557968770413666 -1.5582907248235731 -0.25816649825767574 0.30255017038527798 0.38154098796972813;-1.0182944162371241 -0.62976214132420372 0.3480289946550118 0.97053421169159027 1.3819872852902049 0.081221810814923828 -1.445384638956507 -0.74313953528270171 -0.19861726619681302;-0.035874317368347473 0.90835346216542256 1.5027053464084132 0.53273445467889213 0.13208269967963188 0.6923730608134322 1.1878074269201213 0.95779581259347801 0.27061476847263388;0.60834639831834436 0.87628876703608627 -0.11872496851041177 -0.24801534230702968 -0.85944788710385811 -1.1574408054145118 0.91644759267804876 -1.1787490819393982 -0.99701236487339762;0.043432990332380669 -0.88101758272689812 -0.058896508116431434 0.23077666961751636 0.008347972432158169 0.11894848456562358 -1.1348105327361759 0.24598991663867148 1.3025529786113721;0.76240368649533929 0.52232041765801696 0.52515015293534717 -1.1517753204561691 0.25454973596098812 -0.55172420226041341 -0.43286197162888623 -0.70502533792719235 -1.7956579008140603;0.88034833537486423 0.67681090109925079 0.21646652365339941 0.6598996973029011 -0.60841804221305729 -1.1915048816228284 -0.42875662020336547 -0.77356568980132867 -0.63465069487307824;0.032524730183106969 -1.3943113606638553 -1.0055058873185545 -0.86844850348439928 -0.17020169741880828 0.035458697195332727 0.027833633079823696 1.3907877943415308 -0.79425388742187841;-0.67717304799379119 -0.13714188815347308 1.3497659969505864 -0.45409196523679213 0.80539016196446156 1.3825551838124372 -0.47072543189823651 -0.5045109184634694 -0.60662330482075411;0.32877143067475795 -1.0023017377664778 0.3087616695267108 -1.3036385375610184 0.16712938438016567 -0.7502151024126702 0.19689596022277692 -0.99921240368130526 1.049651801234907;-0.28105961715640143 0.59846883354550895 0.49479462541782138 -0.90749898001583085 -0.90769135590906602 -1.0224307770590262 -0.066764746858524154 0.71493247533836546 0.43726541505679667;-0.18803163796910483 1.3639504619992184 -0.082000726871282292 1.1813728465346636 -0.78302517984534781 -0.14483365296486339 -0.061592109196174284 0.84066172087643332 -1.0221314499598053;-0.21473945186435953 0.47305073023869859 -1.2266398289421769 -0.47609796919614283 -0.9515585478923354 0.38563839654759258 0.91416878172211702 0.71216587454008817 0.82142885412403333;0.8555371009174304 1.3166144571678762 -0.29773481378873806 0.049310319759245456 -1.4028948265461092 -0.70007129116898403 0.9957507325501691 0.46337550091678942 -0.1840100161899792;-0.36920502359093327 -0.71216291850849667 0.5003557374487243 -1.857240015561711 -0.098015914319433267 -0.52034086374484412 0.16731770786141809 0.43174893047420815 -0.060536254438751269;1.4949900610635651 -0.93350304158437791 -0.86900915862416594 -0.12087193368017241 0.56560913631770759 0.21161443701217456 0.27018290893065211 0.68773261558322241 1.4186352193833693;0.8203093568111034 -0.63964552176061173 0.83524784719066514 0.77538890820534234 1.089162722346275 0.30929668692626588 -0.49915097475544745 0.055554624985425405 -1.2088789077842599;-1.4511236547044788 0.45806887420744824 -0.49324111279090466 0.010479272086489154 0.45112107959489839 -0.051310345942045275 1.1177201194118516 0.69136364922497062 -0.64484250394813614;0.89423685535746034 0.86967784193503961 0.12894599588129046 -0.77533314995381442 -0.5254143839722174 0.43156904582648264 -1.7340427051326888 0.29235275499514196 -0.9226886108126906;0.10185481256126333 0.69245820485355081 -0.7820880449081532 1.3229511663920577 0.29111505487447448 -0.62610523870856649 0.55715594793371837 0.59069808394964984 0.95142068070221586;1.2278855181256736 -0.11615797972256632 0.35217199560064288 -1.4380833443870327 0.33979606271846868 -1.4757646397023525 -0.55847583229641162 0.44408690215650798 1.0728928663485007;-0.38171225843395995 0.10401485005910668 -0.55758512022702733 0.92893735949908007 0.82684428664354503 -0.42780417215979477 -0.75632413534725784 1.0708475783187728 0.1052375765453966;0.76776028202426705 0.25769153156408925 -0.24866167315800275 -0.09267171239167446 0.81508960284078391 0.31907909026142067 0.85906113207997437 -0.9276824489536214 0.047318735359268123;1.3045353448030168 0.11704656018422013 -0.7743479729458439 -1.3207650584415989 0.76113489414343127 0.78784436589647622 -0.33036494804979377 0.44964957019464735 -0.90811903113613368;-0.80158936215082222 -0.77150152693455187 -0.88390553971841779 -1.017067356089701 0.80907197280475751 0.68957835330119666 0.4256434811537016 -0.67683296936941795 0.70760601300190151;0.89962807512991572 0.31830220209226828 0.82794107334905009 0.42215815590048272 1.0234875785551063 -0.6663580147282957 -0.55345930301920998 0.7014710083412915 0.35774003773441337;-1.2135059202319161 -0.16188157010837967 0.8427378357950045 -0.48663841117276185 1.2279620130158058 -0.21129225445594726 1.0470361495186651 -0.5164531170969624 1.2823056990690533;-0.85348229999104763 0.7671585653301658 0.099465351759659315 -0.73349696737929004 1.2119748147560048 0.25671350621950867 0.73767606779642336 0.88783430290015952 0.7051102600509852;1.0425475068302861 0.50947053522364094 -0.35463451362048698 -0.44987493172321963 0.63085849892548007 -0.72257684863343985 -0.3923536778354112 0.73043872290225254 1.0198258714990209;-1.3233552590658957 -0.20012754239944475 -0.64995861903442753 0.49317934534805907 0.64569708746293364 -1.2027686763481193 1.2358354145414612 0.50316642921885557 -0.91333879347320557;-0.16049140210785751 -0.8983665089117131 0.35120046324501569 -0.49863192786317106 -0.98338713705008762 1.7566508961435041 -0.097345559228644254 0.71872209547293264 0.61654340028194299;0.30949142350041431 -0.45307506681044241 -0.40115476588441978 -0.68553284029101413 0.4883061913740222 0.30444564524848811 0.79643842675515353 -0.29012503733147371 1.0719862923308758;0.91204779098177713 1.1647701147144911 1.4563918489570733 0.078671478544545093 0.81373642091825216 -0.22872024690259665 0.1552436746890431 0.060208090069983754 0.75467075873454614;0.69533214278054367 -0.13181814158827937 0.36078461393137029 -0.21235180929772707 0.32480420730577858 1.1497130041716566 0.42430589929696888 1.3814356030777846 0.85887395019025858;-1.4357244064411432 -1.1508995594154428 0.13222553755687688 0.080196075370910516 -0.34809216221359396 -0.98466030028659535 1.0915261111818879 0.94348700740810454 0.7679736442060513;0.14745705471095466 -0.68138102729125472 -0.17256319857270203 -1.1531023617244982 -1.1062773836316853 -1.2640898477552875 0.64226006009860992 -0.78607596824886927 -0.20422133238651274;-0.44028353526026143 -0.859059863053381 -0.049323851499063584 0.79105671861679416 -0.16893794244614169 -0.6698270437447762 1.1377522214384528 1.3299474216521663 -0.70633881708265289;-0.039035097696816706 -0.87350227824447924 -0.80792203154611086 0.32536323860301081 -0.071787076654256571 0.97731200364727033 0.46934910037596062 -1.227307374080479 0.72244004696846453;0.50087036458591305 0.082135130483776769 -0.20828223634951248 0.55659114285080946 -0.38168873158772759 -0.43924891827635015 1.0873213126145682 -0.76433690963829604 -1.5014536525681985;0.23704903678030737 1.0356078544252421 0.4120672695432378 -0.22621201450598022 -0.84372824637384214 0.99434187886726899 0.12326047662444067 1.3507510779621716 0.46828361835174781;-0.97451340749336257 -0.076336034869138647 -0.47954816269236172 0.15456373532897755 1.0987848516338024 -0.38623793084468638 1.6955882170034922 -0.50492685181686159 -1.0386803095203705;-0.37075491832717655 -0.58057771880125753 -1.4012273514525577 0.66344443152085641 0.33524008517868342 -1.1204518459934651 0.09426081708360734 -1.1753382123092024 -0.98446047691946892;-0.9788830888327289 0.67111578900363333 -0.39595181067598983 -0.40677408902144013 -1.3715386965389231 0.41022892818765988 -0.271324638802524 -1.2512963728445707 -0.22575986248083221;-0.72985377894783388 -0.68222489092879446 -1.169671318622536 0.82528751118935528 0.24104406419024516 -0.07425005462890201 0.46925622914338483 -0.45483091396011277 -0.24072048068384513;-0.59017978425268158 -0.038606522319195292 -0.84932117298819443 0.11880123201726887 -0.51794689334196764 -0.77516382891844204 0.071437591090930022 -0.5248393157256741 -1.2575221550075599;0.90085434559989341 0.71848276351270457 1.125825457188294 0.28198427719548985 1.2048349556431395 -0.59611615449707689 0.53574902379642098 0.66351775909884914 0.38311927735339807;-0.14833664906563329 -0.59990286483986699 -1.3608723352307948 0.33857462034622909 0.58305660604060239 1.1146656178617544 -0.22393717040786867 0.89387528392998294 -0.46592987175267286;-0.76645463900846456 -0.37617879181367464 0.31977350208958244 0.70505195666743448 0.89093980887976942 -0.46804671833157174 -0.32062944371432006 0.20705084972251903 -0.93299191038342089;1.0604065374823461 -1.2976844275491048 0.020472814056139162 -1.1714080811376713 0.43168204563240292 -0.50587264346282279 -0.16620248034526408 0.15930933350727181 0.84260600027856869;-1.0697207651298921 -0.14791528485466901 0.89564956879263158 -0.82607132175026454 0.13418140928721187 -0.69067151056842346 0.29585877277043243 -1.3596893696465548 -0.92953364462950427;-1.1098770435029361 0.1446795167312509 -0.52114747180241638 -0.66130091783353617 -0.2552827549834305 -0.35202921016224786 1.1939002344312419 0.16475146240052913 1.2420729244075126;1.1598955453497686 0.052127534177650661 -0.36504441103665614 0.78763515410002061 1.1318708906142334 0.98996347621187231 -0.64774497574967083 0.21714590334628098 0.067732220514504407;-0.49578104869528955 0.76934307759650256 -0.27201673926762676 0.62594009741075018 -0.59168622574829155 -1.0155246172250267 0.53544101127625465 -0.13869025047034222 -0.0039162869169344361;-1.0011931328744361 -0.35857770416220419 0.9338059277676668 0.83710802664999484 -0.30022500624993903 0.016104285079015776 -1.241250623797483 -0.28420544467510611 -0.90180348529373955;-0.87968155334223574 0.31321504813730078 -0.7616522619013083 -0.52886399369611747 -0.94970034289745175 0.4459721750020722 0.69697545423186613 0.17163830980379871 -0.87429101528088993;0.7841696822577009 -0.64263006419906665 -0.068666583057257091 -0.094812432735444013 -0.33142682776653165 -1.9630745201362438 -0.34682231436159389 0.9529076535326273 -0.35757488595705111;0.54461382191534879 -1.1309995015381564 -0.99400885536425387 -0.28395109218892861 -0.63603748239350733 -0.30946500252119036 0.88390042520487033 0.65280039763944697 -0.50033653615202511;1.4157739058286793 0.32679637445138848 -0.778236161303278 -0.41630782153963924 0.46520574277931326 -0.31150959398413847 0.73053849603878129 0.94031167826935813 -0.041236058329174964;-0.65132207144035725 0.68050621499012531 0.076573098982944093 -0.37622883757732634 0.93357809577477635 -1.4247851996044256 0.4726565355312019 -1.3092492964693832 0.81441095266534325;-0.81329819549503513 -0.55699576149643093 -1.232375971163683 0.86414928502958988 -0.86406490702116956 -0.3048338839106195 0.2787734062195536 0.58828572541197777 0.69376413705766682;-0.098176299679395548 -0.72291829395597096 0.24629031391871065 -1.136381457926438 0.16166614859425274 0.088897316010369792 -0.23103871608972509 0.52039244617445857 0.34970601481471958;0.50300460149334703 1.0419124510417486 0.21946769681879799 0.30750919539725841 1.0721180910582104 0.24140858624894251 0.62364661273987787 -0.8757382220340344 1.1643608622288253;-0.33669898531482534 -0.64307748789936059 0.88114696165633388 0.72501039345333018 0.19937156721217977 -0.46583899158789577 1.0333590667424803 -0.9414651583318161 -0.13440566882403054;0.7991745219346702 -0.46833521705204106 -0.56822807374907636 0.75454476054417097 1.2468417533146068 0.0061930649125118836 0.71186532940507052 -0.15795094060688261 1.0701532410649048;0.50765366884850294 0.68259668543017993 -0.27592324072952923 0.45019179185604397 -1.0988815797721971 1.1332590052900038 0.93439657001850551 -1.1736008653030394 -0.54613848806257148;-0.18614232401991238 -1.4389964821936534 -0.2579580664707527 0.067766263303581625 0.66549530805810753 0.38182384512351969 -0.50988999130783341 -1.6715930315457237 -0.17265308065632132;0.65124145866876126 -0.56314389265373832 1.3782936895235918 -0.97460183559523605 -0.57118665895639842 0.80963752742911888 0.013224304302967805 -0.33542981752328771 -1.0647880353263546;-0.19983314859047918 0.411935531973525 -0.72817432665558945 -0.75608250859996895 0.70267585901715535 0.0084161022101753788 0.77800761136872054 1.3183199942199022 0.29342329655726984;0.93533674553723978 0.1751539474679068 -1.2296468568673129 0.40057571013070248 0.16626520255526644 0.31350366354073306 0.56816747139512835 -0.74705354008132863 -0.60249866552824249;0.66928217106167887 1.2464265939902772 -0.99134248545941017 0.020987767965769462 1.3724086764646846 -0.30660450160346187 1.1378173752691998 1.4591828216735561 0.32128740671214062;0.47516897866016211 0.43033695882939649 0.71927878560371405 1.2941952729611716 0.71279679863352163 0.50992462997240728 0.46144814714056065 0.43685455616775454 -0.11353523016092046;1.3605731463124382 0.79460025329832507 -0.71262048482498952 0.80890446942023353 1.7446330026960475 -0.78745631677858174 -0.94655343666372327 0.20359985559430638 -1.1153099175982819;0.097422719556808063 0.059542305375990132 -0.39069968644298392 -1.0196988284335808 -1.1481220606603166 0.045984202337496512 0.63798830557427189 -0.61630131551952305 1.0387594340545736;0.315053100798594 -0.11073517170962474 -0.26196188179444124 -0.63717595338956534 0.80288020037570207 1.5433825108753936 -0.27088583270587197 -1.4579413826071186 -0.30380671419966249;0.7253330498349746 0.21335878672800843 -0.32165905079314455 -1.2953160323808071 -0.07053773664893126 0.060688923025917926 0.70829052889170174 -1.5181646917879446 -0.4931686860818893;-0.0026988331310101206 1.5539209478592366 0.55852809447763185 0.47963727665676886 -0.18434779869747117 1.3624985073206428 0.3290663823356807 0.047580402268285249 0.78510324649533025;0.91242376605488662 0.28634956292714236 1.3742383673189742 0.10519865090587545 0.19823194633414248 -0.10155467034049767 0.71451577649353026 0.57791689393684587 -1.2360204996900084;1.1783801397244442 -0.7535684101482335 0.98944259528583678 0.39000044623078617 -1.3622144305679964 -0.16504241414235549 0.20933479772669872 -0.30673550131400906 0.68109374153681301;-1.2341385754769252 0.95583861457548169 -0.33331337081821816 0.74709617646531523 0.068114776802074839 -0.30982982958788285 0.66112393101251177 -0.6131657790116537 -0.79697283464630786;1.5328106036938633 -0.91051254846773244 0.46089553376651715 0.60503977391739383 0.42759296175936873 -0.066821643594735899 -1.5153531825783781 -0.20431099784006498 -0.57658242373923874;-0.89014082597145938 -0.2076579172500734 -0.62006307647547865 0.61124556942610342 1.2190879615893273 0.70514785509867017 -0.049640593190049383 0.71602342979005917 -0.95185465395931579;-0.60325528004128548 -0.86009137103172018 -0.75120877222664462 -0.637723774001829 -0.40692651961723275 1.5714275097820618 -0.52672820504645379 0.081856710866460999 -0.92520310319207211;1.2570288218230428 0.71625641656999661 1.0652173252972044 0.56421601084488449 0.32375400924273917 -0.85785574944146892 1.0002436450937373 -0.24660044346383381 -0.3250550421046598;-0.58264495085655787 -0.64711936530378877 -0.56157576667483422 -0.90088555763834011 -0.90453301393153207 -1.2805202683908454 -0.94701444921293854 0.1106862854894019 0.30684715854988476;-0.3903050220491795 0.49394327554862549 -0.15875912888529958 -0.066202888143991223 1.3211572485288148 -0.89815347214787555 0.4321556414682865 0.42276106368530314 -0.52328112727315257;0.92402299039326341 -0.6791342744947636 0.56042508799281066 -0.87526950959626271 -1.6302253902992547 0.324085217651428 -0.61510101083374713 0.28531322965930722 -1.1046259166095047;0.54957408984624612 0.35607592240654123 -0.084584862896879762 -0.43930909425573489 0.18920882727797511 -1.2691136740429285 0.095035778884105609 0.58189535907761114 1.3415884717901938;-1.6171823825834051 -0.82773743133036382 -0.53122302279107381 0.39499024150431605 -0.61215027343468542 0.51844417828148792 0.91126275299688664 1.2060590609146029 -0.82802776359857666;0.24229220651424652 -0.34202639233741455 0.74675269483968898 0.72705252674057841 0.016185246206011444 -0.96753044214130512 0.88987486379056258 -0.36904694049737791 0.55959298926735512;-0.80612393683568762 -0.82803499514957557 0.1073112506176149 1.039264340676517 1.0451148079511245 0.11550642993513459 1.0065086566324188 0.37986563836995668 0.046608142952998734;-0.42542620203645148 -0.76514444287173822 -0.60610218603676325 -0.29134782456576269 -0.25479087372178777 -1.0467633862813581 0.84544453814161991 -0.47064937800003953 0.7928479731014344;-1.5839276179196482 0.56373169484912478 -0.70685326837751805 -0.43769227762196827 1.5637665970734385 -0.32311666761014624 0.35392016139687915 -0.83157220167317947 0.13877677793552132;1.3089823913747949 -1.0787045169380642 1.1573232328642191 -0.079049678789966535 0.39851712968087383 0.2797588442920278 -0.33242367268987227 -1.3781296242747298 -0.17970322450779838;0.70700743784987163 0.23321191264534605 0.8863881569894303 0.15823821516793493 1.3548367363063909 -1.732390933394347 0.091335802488645396 -0.40590216530251844 0.72763446346748706;-0.76259661153879321 1.0315243095165165 -1.0993343096820283 0.35855849781585786 -0.92619291115465285 1.0754529124460253 0.011884238478369051 0.21373400104911963 0.85033958615871652;1.0141523784684943 0.61646453468155527 0.27896571067308729 -0.99375176497524165 -1.1223493230725683 0.045241376709938795 -0.66823477540672183 -0.31899275252770731 0.05065916030114824;-0.48893981902298189 -1.1216937993246041 -0.24583333346652705 -0.25171395557384091 -0.90397364249185808 -0.35904955473592542 1.2218786901723626 -0.066107961852168509 0.87255459600625407;0.98186527641297139 0.97272859059461114 -0.34623855305073964 -0.66828504367544583 -1.1522710924095236 -0.28413953261086095 -0.82331569531914683 -0.74669023204737417 -0.339068667680543;-1.1438754898529602 1.1991776954285516 0.19429942677830431 0.39125266269257719 -1.3496916571242561 -0.54802016249264673 -0.59311209028913381 0.11674900768134248 -0.55018615866475817;0.157767795696243 0.33654393409831196 1.5143461995460299 -0.8030440661901086 -0.017498698277974623 -1.7315536672763554 -0.79630996952870448 1.152804274923477 -0.28201992451628166;-0.83603745692750475 -0.43642980630683398 1.3285584326930098 0.40470539509712433 -1.243661788297258 0.17562551714044633 -0.88052242249804646 0.79434959606579225 -0.067202632043920393;0.73049130143092977 -1.3066841999677352 -1.0141318371429517 0.25415814027381717 0.11961678101440064 -0.066245097525838709 -0.18541815525698063 1.1302284518364856 1.1130422677279188;1.3308899534185223 -0.88341403793551265 0.23324589870798668 0.22782598529020887 -1.4892473308864176 1.064814315346986 0.46552142441836297 0.00040639446196920597 -0.55240307100413588;-1.1268584359894167 0.55875724879367372 -0.16989502443811405 0.054810088804451186 -1.355343853327696 1.5832149932641948 -0.84171377191728425 0.54404560486545295 0.78542141441342561;0.16459616873416455 -1.3169778644919612 0.49554439891278024 0.59953588456515805 0.13764114084349272 -0.10322961930495106 1.0638445631281646 -0.57466840216570747 -0.18547306559696389;0.64605133121371394 -0.65051683848441244 -1.4825865708646273 0.40291294148704304 0.96409784451882552 -1.0164093127998117 0.50906813250612104 -0.11816047929161357 -0.58142443631924756;-0.84883178050756114 0.72220618800835101 0.91992012631378917 1.2705404674573069 -1.1660493067195925 0.059766817949210765 -0.26490559224735954 -0.94133640029291077 -0.55839633435005587;-0.71682178893657456 -1.0608516467289677 0.11765657634019598 0.23774653048280525 1.0320349143976801 1.2909196934353293 -0.73873921380123175 0.039584162452111195 -0.51215458441709349;1.644032958214183 -0.88580589266940246 1.0198334405873466 -0.69196489731471711 0.45266633948090351 -0.029887450498639116 0.18784053108499776 -0.72276237832472856 0.2782941728657502;0.095151168075978579 0.21849071369685874 -0.78184707801550368 -0.72275785786816971 -1.144676098631936 0.3578060096082144 -0.57817530910404058 -0.99878847221731759 0.92492186224798401;-1.1143530027350852 0.63193589814979678 -0.23087270168918139 0.12767490357533551 -0.35851558391903532 -0.75907700700702918 0.91056690693275955 1.1145868291185428 -0.9527598179385568;0.47261158716182267 -0.69097694810126808 0.45450827245640318 -0.019790951291111185 -0.9878511843526756 1.2681598143862134 0.97437519982938126 -0.0028923267871393682 1.0030857403434084;-1.0909104564577687 -1.2033153418912907 -0.59505274132697739 -0.098727290481384955 -0.89341464576240959 -0.44554658631061317 0.064539561947638199 -0.089578676007427291 0.038785390123259128;-1.1401962727236146 -0.27363586651325866 0.96584781594524827 0.27101964431095971 0.86661096031592244 0.27810758043613787 0.37027636466956609 -0.56141393574175991 -1.1227560001962431;0.11181836546795956 -1.0556705793547558 0.84248987344893289 -0.99855620890890784 -1.0481533153781488 0.84734471331865979 0.88653274481391908 -0.46004929749713891 0.092024325588070943;1.2151904287367536 -0.74444087181783913 -0.047901743066854324 -0.013268995052215588 0.75729142949650041 -0.44068983846196236 0.75385551432664644 -0.84690527829543383 -0.13779268827260763;-0.61208884478934922 -1.3090511129097362 0.85583929391224656 -1.0131922071967723 1.2304415309194168 -0.29225326166558818 -0.12480688919585374 0.32726708346705485 -0.66540944054801443;1.1988748262134323 1.8670903563615637 0.62001120052720715 0.70074924538332772 0.59487212497623543 -0.32305986764561062 -0.53967304618966849 0.51091323339476669 -0.94389842808966007;-0.032942470100762289 1.3987663009874616 0.42077773886131942 0.85781172782422732 -0.17528211083497364 1.2596832483980258 -0.2688155292916255 0.78508656312767455 -0.79995496520249298;-0.63963922848567278 0.73685500228128575 -0.89934171929314888 0.6752998403974656 -1.1602276491587897 0.75818977148047051 -0.54063314773694049 -0.038584055154957955 0.85067741463044977;1.1355746809670946 -0.8991790715187522 -0.13536071753575216 0.30420539074739744 -1.3328116482657308 -0.18571430673352338 0.42593146259293507 -0.39569887425399136 -0.15433475237571079;-1.0786831689288292 -1.3764648821945267 -0.85371439122920945 -1.0578892195716301 0.30237790372615841 -0.90089617260266319 0.37952449416651868 0.29709802277348041 0.34052857404024739;-0.31732003205454112 -0.23396656025604221 0.5740289078448958 -0.70445854878375169 1.4281183874343935 -0.0042368438018532979 1.2011605178250879 -0.48924461500402255 -1.0233715104937893;-0.68310314803231487 -1.122030074964721 -0.51871330801634719 -0.57201940315488375 0.4529083842305604 0.398756928563063 -0.45781436526174563 0.68784250913721434 1.0466848968800495];
  
  % Layer 2
  b2 = [0.48481882440150315;-0.47573570381856961;0.59724878514959812;0.31500066550835187];
  LW2_1 = [0.17252644425618013 -0.13961550863867589 0.039913589456042217 0.040660173576256016 0.079773346291463904 0.13203255786506343 -0.27677609911958767 -0.00030910571370550968 -0.020435091728577534 -0.0032542327390143941 -0.13561214694920726 -0.019826336913725068 -0.0008820407775225296 0.23876434638603597 0.26510304165751269 -0.1843820837130998 0.10169973446940989 0.091999869278748883 0.12187087718950916 0.25045246639961005 -0.21009411299861575 -0.072196412254059261 0.026991656083696403 0.33120353931524443 -0.013046791185971374 0.10941472347837032 -0.051380982287499266 0.19677446078576907 -0.066097483563327397 0.29012230498251323 -0.034991203007367064 -0.091923270556324113 -0.46995759941083987 0.10844151066280695 0.097944014407574956 -0.059144594505118449 -0.32743079475521675 0.038295837945212699 -0.13831215236066929 0.16077507370697697 -0.0095491200868811701 0.2431773268885549 0.036174776471975215 0.39673697064193258 -0.17846814450860354 0.059434878968513752 -0.051107990306553927 -0.023564070872043617 -0.087840396799500925 -0.010360556485227084 -0.0068142216774043605 0.33020278567479505 -0.082498209302253184 -0.034003507213354031 -0.26293008227982417 -0.32416935458802626 0.12094509419482301 -0.004285194827292076 -0.1254054484081692 -0.069057990224339311 0.059846368732362071 0.16240345061005934 -0.04864836453317925 0.094551117022416975 -0.16519994261145268 0.0085519414417820263 -0.31496712455758236 -0.015103863291796251 0.11432664079303166 -0.21464489572843612 -0.14579471284690873 0.12060688422117362 -0.039462586470624006 0.29659485523081286 0.01691069630282168 0.066471766228914403 -0.14627005797371453 0.046789494622435049 -0.098088694797536929 0.023060468513127298 -0.088347985399406137 0.13898889190037225 0.011083416023601779 0.34952675918574533 0.010244075991146264 -0.076562493736387835 -0.09346610078624 0.073062047191430585 -0.059803795537875723 -0.20420045278867704 0.085987655381123462 -0.010115026462118249 0.048614802433952962 0.21943915652689483 -0.32601728082312897 -0.063312999809383722 -0.033250926296894384 0.14717991067804401 0.18989971876112008 -0.053736336480586913 0.15234226374493812 -0.093353891122060342 0.14695121816711243 -0.038988033515433063 0.36688579312932784 -0.0001569808821740154 -0.19826356795533737 -0.26819554849086058 -0.11389389224060723 0.028062299562688676 0.17763015651946129 -0.15794854756238347 -0.29707223250502096 0.013961695060131642 -0.041407207520740008 0.091514050604972697 -0.22081692584125315 -0.072893637139552991 -0.25804909803871356 0.14975107614616115 -0.13399609006217905 -0.28455124409362981 -0.085151449321438172 0.13069729694436932 0.051096422763610219 -0.28958275934627581 0.27368176741865485 -0.12553112642877509 0.13472733181900495 0.12476518701373433 -0.53433634079108305 -0.41055429265951876 -0.045847035373702043 -0.098925230176107479 -0.0069528217912664791 0.17119792382206214 -0.13874099031754719 0.02627101141074599 -0.16700748379354247 -0.36046538474119993 0.12402370982233432 0.21246903585504001 0.1140931662854258 -0.33467832800101716 0.22733443089465993 0.15315407484716712 -0.12234935000760604 -0.0030967748772702634 0.084794289332063677 -0.20083240652600248;0.024018312723019353 0.18479422701509729 0.09496605312064893 -0.1369434603109525 0.046950978844132255 0.080422844682680433 0.00052303128329108522 -0.085574863304035437 0.049973448719421436 0.0084575565328181349 0.086403502228655629 -0.040466669984495982 -0.066428621810267818 -0.7771777227010519 0.33116343572800583 -0.23105614565848695 0.71424838050963013 0.064004048989646095 0.042737565474573407 -0.014078064800559273 0.17404248829678262 -0.029253769331153166 -0.05871598406927607 -0.11704557744412203 0.065089708085479633 0.085076262989971591 0.17913366112364137 0.14734395837000616 -0.046579207148100238 0.085929537170717746 0.059228028276714029 0.011991965880826393 -0.35517310766188764 -0.08439626526814227 0.15067983984416836 0.02077377718778577 0.02751970663671649 0.12122025619930445 -0.064716184435620702 -0.017092728551838424 -0.13206950512297239 0.046833373014849647 -0.31923492089859595 0.51369298810961805 -0.24711441016892249 -0.037503607241469214 0.00084889755765779965 -0.012058875535555989 0.011913689854981993 0.10920636600976653 -0.16289533935209422 0.27628460461550219 -0.22159676997722733 0.034252929542095585 -0.38833115631266751 -0.11586200998414811 -0.12664805529585077 0.36132129623556475 -0.15249656781367993 -0.11399328883010727 0.062125075833502651 0.047894627506136704 -0.024532326609003129 -0.10950679826856458 0.072989127292409736 0.050769973982556574 0.36723326581048005 -0.079103785754735353 0.20817752224972527 0.0077493263206755147 -0.096544459128317162 -0.045925724069862076 0.14486224369848386 0.37847799779390956 0.12503572593566092 0.10676687128623781 -0.15616446070105616 -0.0035791850200867052 0.28074736944193585 0.17722829357837763 0.096736485152180973 0.091530179019070915 0.045748207338593166 0.63167511152363776 0.077119903902612363 0.07004708166216031 0.17715405822847072 0.045705726735005718 -0.08499402994921039 0.14269649669878437 0.10229731334598978 -0.002272743577150398 -0.043378718715948436 0.31247021052812418 -0.3079078058365039 -0.057824805386028702 0.055639257338957415 -0.039648589624448928 0.14310464367355188 0.09775637869545907 -0.058186793398067316 -0.013453215925587025 -0.029189600074236068 0.033991969129475899 0.16896130761703065 0.32082275406733679 -0.25180332640189368 0.031578662305341565 -0.018491699923836331 0.012120199992663372 -0.12191794966603772 -0.090509031956073613 0.10114709889604195 0.044118757940402611 0.099545404333220081 0.46861633010064674 0.21332439847050752 -0.16775432612640395 0.099421572512722628 0.0070405043341136191 0.0413193707724809 0.20810820293276047 0.025832369880932043 0.29088682111264424 -0.69454263780454717 0.0024423315082218516 0.043745580201922991 -0.17243709748155411 0.2376708573286605 -0.13411071752860607 -0.047412839381073643 -0.22298161203104017 0.12203487390540481 0.16998880080157902 -0.12874230719058044 0.10314056487318497 -0.11537459162683288 0.043096303434506017 0.057235865243715239 0.43464314186671538 0.0041374021587472203 -0.25948030439310343 0.19234291618426802 0.0046108012871174976 0.27786882465403823 0.086973784355446782 -0.21363533205977508 -0.56473505952455527 -0.32797701735501628 0.1446877289349712;0.22421329895181319 1.1913509656497876 -1.1165707898879715 0.89011986402962096 0.47137985053321757 0.30389236317866669 -1.3050006149718172 0.039151007474073365 0.33857255458117885 -0.39273847190954769 -0.6559797844736962 -0.58663359138771787 0.98550786512023092 -0.18992532961767394 0.0074186215452664243 -0.060212428376737265 -0.62828449424405253 0.013081230298061144 -0.48414339133940409 0.85959289889769608 -0.69911895834856075 -0.65253383163728029 0.26333513247362794 0.87144363798958524 -0.11629919323510846 -0.019827436643956649 -1.0082844585548336 -0.61535446474444466 -0.33106214701343528 -0.029923978668994509 0.073717284573581579 -0.79712425374344298 -0.82471046792093217 0.31556676411372464 -0.2534218697108308 -0.25267015480905852 0.63475693299634106 0.034148838987640637 0.74505700007337894 0.40183077170543158 0.53291005733886287 -0.05441800137327208 0.3818663271704007 -0.27918923154819142 -0.38459152649013839 -0.078005546688066654 0.75408748741436948 -0.67578581248331548 -0.34584344658451638 0.87462041288693937 -0.22588600265369255 0.81143462432624303 -0.48036033267513151 0.92620553212587142 0.29721704522503178 0.056869096366751498 0.78595712265776885 0.57226252534035105 -0.39988430359407484 -0.81094911085522692 0.079974191482206095 0.360588417439136 0.026818833140580291 0.092133999297669245 0.054023321804965212 -0.62810223920331798 -1.0846320550676312 -0.59646378231349007 0.049212764423757632 0.81699891134605429 0.51569262174719199 0.59917971691413618 -0.53055759638591382 0.036865961860315023 -0.99668711805067534 -0.24042457874271075 -0.68776472585354165 0.85645241699163899 0.75938901516657542 0.64109294634855829 0.034193294735898279 0.14471708308470821 -0.68191386886181182 0.60622141903041538 0.37433635226715711 -0.15715064271376561 -1.1614741346350621 -0.0014570479790200711 0.84074834792077868 -0.48510020476708021 -0.40792241147669672 0.45822974620417312 0.13608143717286228 -0.1684695985000087 0.81304770785316938 -0.61497015911969444 -0.87078702798041674 -0.77803466835770541 -0.47616915256577164 -0.40753299027613643 0.3435773789031118 0.42581927565861 0.55825211145660081 0.059197353857088089 -1.0015034163987893 -0.44640219197085285 0.70883323350337091 -0.73572052122539078 -0.78899385266892641 -1.0050424879457414 1.2115507494016218 -0.070163306929073604 -0.72239239052997795 -0.062863550404841997 -0.58198762988470787 0.26391331482020497 0.034773123043720426 -0.52161750741561763 0.61076853124016994 0.84871339108273425 -0.16770287753624585 -0.38295473050753814 -0.17441363054474229 0.061102238518469854 -0.10419400087277141 0.61840984539069521 0.27305224337638584 0.74460454504098461 -0.2275330784002586 0.868099638898857 1.0718188775267714 -0.82081101081004271 0.69352214347650787 -0.10860177319578068 -0.15107416652261371 0.82171070269664714 0.71596712553995701 0.050645852092607371 0.36144303095957903 -0.81249211927188814 0.77286432261339477 0.19063665927627663 -0.65052998255577421 0.6427469998405354 -0.59082269621792916 0.080162804534870999 -0.47767768099922642 0.48908914974117268 0.85644904033659486 0.04656492740987099;-0.061105135315357537 0.40606126809125698 0.72989348948881316 -0.27101090498122504 0.020011208304536045 -0.079355369022643826 -0.015667496651138306 0.036290982086359717 -0.089732405792182446 -0.053153701461744675 -0.45996395372547305 0.57191850664786126 0.21849020902151334 0.55296377481569337 0.46162912487802965 -0.73141784875553684 1.3375448773992564 0.32861436262264654 -0.30336599841197748 0.10389362487393063 -0.24783020390994864 0.042553653916221748 0.77945197855615844 1.0494154398105213 0.56405252986482546 0.7149357358231655 0.36228542484950477 0.47404324527230746 0.14794173607745803 0.72178938210334753 -0.025170527779580336 -0.028482723626553248 -0.34047209037591569 -0.45877643428518922 -0.63208338441677059 -0.50656553482331301 -0.051436905540797537 -0.54348148460684853 -0.17681775323341642 -0.38738569034823167 -0.29512656295199874 -0.50641011168716432 0.67347100442127417 0.049222893961049681 -0.37177446369819661 0.44266879725139202 -0.35177712457422855 0.32116141232515799 0.035537716269623876 -0.016283276580008138 0.0976183216884106 0.40403112014659148 -0.017289954986758976 -0.028194749361972415 0.52896232972962054 -0.76039132312908775 0.042703615638307629 -0.13383508847704914 -0.28090113768457464 0.4659846024241423 0.60567237287176723 -0.07569050185399151 -0.3950386000983428 0.27768480415395624 -4.2186767572362921e-05 -0.065452815228926001 -0.20410197950658665 0.21352621643503938 0.0095283273537181915 0.30713332635392182 -0.45346422398886937 -0.26497339199278475 -0.0095452398621865969 0.61540882622119164 0.36627369401015519 0.32440469189665511 -0.42628768900384822 -0.506592794162809 0.69248293702616237 -0.29035827772416622 -0.69620415356230825 0.38008990185599617 -0.13750024193494423 -0.053398765023013932 -0.066069937529690814 -1.0031277525037121 1.1828005258572423 -0.53203093494244635 -0.22251106809564258 -0.54216220114128677 0.19510561711156862 -0.42489953148341925 0.55905022557700745 0.22579991684836756 0.17557906451472866 0.4112519943289501 -0.66053778823949205 -0.058817279140727027 0.55030416453581632 -0.11136965075080697 -0.15801028874724798 0.11299160761040929 0.13486081399836758 0.59326164352852251 0.42683945777306365 0.46127363623330214 0.55888945739393348 0.33948576814283749 0.27628269876439004 -0.33770875047717563 0.34059219242530969 -0.68392603835268473 1.0280463068443593 0.80045098478130761 0.12570563999958401 0.060600800533817181 0.19325305676898397 0.97262179635477752 -0.49335847752383843 -0.015208633510151351 0.10098764918165773 -0.45145454187618494 -0.48813277417228368 -0.49893998927064376 0.20914082211467463 -0.2254667631325542 0.57778750800030532 -1.0111993432755786 0.3742473792716951 -0.32725234254593438 0.012524596295556342 0.91608170569691805 0.14995845298979024 0.77869673591989064 0.088060495467122538 0.56886495679898119 -0.76129344967289336 -0.23384748308400136 0.60642817693636819 -1.1343507643049018 0.070832159664960898 -0.25405464595403815 -0.36360945141138079 0.88337603781779617 0.49347336147708404 0.49625659559947721 0.8955823639465732 0.078285262961930474 0.24651636102926433 -0.68973002779805681];
  
  % Output 1
  y1_step1_ymin = -1;
  y1_step1_gain = [1.93030921978322;2.3776078318995;1.00000119371446;1.00000601125089];
  y1_step1_xoffset = [-0.582497746075963;-0.479895273387133;-0.99999793580007;-0.999987977625719];
  
  % ===== SIMULATION ========
  
  % Format Input Arguments
  isCellX = iscell(X);
  if ~isCellX, X = {X}; end;
  
  % Dimensions
  TS = size(X,2); % timesteps
  if ~isempty(X)
    Q = size(X{1},2); % samples/series
  else
    Q = 0;
  end
  
  % Allocate Outputs
  Y = cell(1,TS);
  
  % Time loop
  for ts=1:TS
  
    % Input 1
    Xp1 = mapminmax_apply(X{1,ts},x1_step1_gain,x1_step1_xoffset,x1_step1_ymin);
    
    % Layer 1
    a1 = tansig_apply(repmat(b1,1,Q) + IW1_1*Xp1);
    
    % Layer 2
    a2 = repmat(b2,1,Q) + LW2_1*a1;
    
    % Output 1
    Y{1,ts} = mapminmax_reverse(a2,y1_step1_gain,y1_step1_xoffset,y1_step1_ymin);
  end
  
  % Final Delay States
  Xf = cell(1,0);
  Af = cell(2,0);
  
  % Format Output Arguments
  if ~isCellX, Y = cell2mat(Y); end
end

% ===== MODULE FUNCTIONS ========

% Map Minimum and Maximum Input Processing Function
function y = mapminmax_apply(x,settings_gain,settings_xoffset,settings_ymin)
  y = bsxfun(@minus,x,settings_xoffset);
  y = bsxfun(@times,y,settings_gain);
  y = bsxfun(@plus,y,settings_ymin);
end

% Sigmoid Symmetric Transfer Function
function a = tansig_apply(n)
  a = 2 ./ (1 + exp(-2*n)) - 1;
end

% Map Minimum and Maximum Output Reverse-Processing Function
function x = mapminmax_reverse(y,settings_gain,settings_xoffset,settings_ymin)
  x = bsxfun(@minus,y,settings_ymin);
  x = bsxfun(@rdivide,x,settings_gain);
  x = bsxfun(@plus,x,settings_xoffset);
end
